digraph Tree {
node [shape=box, style="filled, rounded", color="black", fontname=helvetica] ;
edge [fontname=helvetica] ;
0 [label="Age <= 0.48\nentropy = 0.942\nsamples = 320\nvalue = [205, 115]\nclass = P", fillcolor="#f4c8a8"] ;
1 [label="Salary <= 0.552\nentropy = 0.648\nsamples = 229\nvalue = [191, 38]\nclass = P", fillcolor="#ea9a60"] ;
0 -> 1 [labeldistance=2.5, labelangle=45, headlabel="True"] ;
3 [label="Age <= -0.104\nentropy = 0.176\nsamples = 189\nvalue = [184, 5]\nclass = P", fillcolor="#e6843e"] ;
1 -> 3 ;
5 [label="entropy = 0.0\nsamples = 129\nvalue = [129, 0]\nclass = P", fillcolor="#e58139"] ;
3 -> 5 ;
6 [label="Salary <= -0.07\nentropy = 0.414\nsamples = 60\nvalue = [55, 5]\nclass = P", fillcolor="#e78c4b"] ;
3 -> 6 ;
11 [label="entropy = 0.0\nsamples = 34\nvalue = [34, 0]\nclass = P", fillcolor="#e58139"] ;
6 -> 11 ;
12 [label="entropy = 0.706\nsamples = 26\nvalue = [21, 5]\nclass = P", fillcolor="#eb9f68"] ;
6 -> 12 ;
4 [label="Salary <= 1.385\nentropy = 0.669\nsamples = 40\nvalue = [7, 33]\nclass = u", fillcolor="#63b2eb"] ;
1 -> 4 ;
7 [label="Salary <= 1.06\nentropy = 0.902\nsamples = 22\nvalue = [7, 15]\nclass = u", fillcolor="#95cbf1"] ;
4 -> 7 ;
9 [label="entropy = 0.0\nsamples = 10\nvalue = [0, 10]\nclass = u", fillcolor="#399de5"] ;
7 -> 9 ;
10 [label="entropy = 0.98\nsamples = 12\nvalue = [7, 5]\nclass = P", fillcolor="#f8dbc6"] ;
7 -> 10 ;
8 [label="entropy = 0.0\nsamples = 18\nvalue = [0, 18]\nclass = u", fillcolor="#399de5"] ;
4 -> 8 ;
2 [label="Age <= 0.868\nentropy = 0.619\nsamples = 91\nvalue = [14, 77]\nclass = u", fillcolor="#5dafea"] ;
0 -> 2 [labeldistance=2.5, labelangle=-45, headlabel="False"] ;
13 [label="Salary <= -0.975\nentropy = 0.934\nsamples = 20\nvalue = [7, 13]\nclass = u", fillcolor="#a4d2f3"] ;
2 -> 13 ;
17 [label="Salary <= -1.342\nentropy = 0.544\nsamples = 8\nvalue = [1, 7]\nclass = u", fillcolor="#55abe9"] ;
13 -> 17 ;
23 [label="entropy = 0.918\nsamples = 3\nvalue = [1, 2]\nclass = u", fillcolor="#9ccef2"] ;
17 -> 23 ;
24 [label="entropy = 0.0\nsamples = 5\nvalue = [0, 5]\nclass = u", fillcolor="#399de5"] ;
17 -> 24 ;
18 [label="Salary <= 0.424\nentropy = 1.0\nsamples = 12\nvalue = [6, 6]\nclass = P", fillcolor="#ffffff"] ;
13 -> 18 ;
19 [label="entropy = 0.65\nsamples = 6\nvalue = [5, 1]\nclass = P", fillcolor="#ea9a61"] ;
18 -> 19 ;
20 [label="entropy = 0.65\nsamples = 6\nvalue = [1, 5]\nclass = u", fillcolor="#61b1ea"] ;
18 -> 20 ;
14 [label="Salary <= -0.805\nentropy = 0.465\nsamples = 71\nvalue = [7, 64]\nclass = u", fillcolor="#4fa8e8"] ;
2 -> 14 ;
15 [label="entropy = 0.0\nsamples = 24\nvalue = [0, 24]\nclass = u", fillcolor="#399de5"] ;
14 -> 15 ;
16 [label="Salary <= -0.621\nentropy = 0.607\nsamples = 47\nvalue = [7, 40]\nclass = u", fillcolor="#5caeea"] ;
14 -> 16 ;
21 [label="entropy = 1.0\nsamples = 4\nvalue = [2, 2]\nclass = P", fillcolor="#ffffff"] ;
16 -> 21 ;
22 [label="entropy = 0.519\nsamples = 43\nvalue = [5, 38]\nclass = u", fillcolor="#53aae8"] ;
16 -> 22 ;
}